/*
 * Copyright (c) 2024, VeriSilicon Holdings Co., Ltd. All rights reserved
 *
 * Redistribution and use in source and binary forms, with or without
 * modification, are permitted provided that the following conditions are met:
 *
 * 1. Redistributions of source code must retain the above copyright notice,
 * this list of conditions and the following disclaimer.
 *
 * 2. Redistributions in binary form must reproduce the above copyright notice,
 * this list of conditions and the following disclaimer in the documentation
 * and/or other materials provided with the distribution.
 *
 * 3. Neither the name of the copyright holder nor the names of its contributors
 * may be used to endorse or promote products derived from this software without
 * specific prior written permission.
 *
 * THIS SOFTWARE IS PROVIDED BY THE COPYRIGHT HOLDERS AND CONTRIBUTORS "AS IS"
 * AND ANY EXPRESS OR IMPLIED WARRANTIES, INCLUDING, BUT NOT LIMITED TO, THE
 * IMPLIED WARRANTIES OF MERCHANTABILITY AND FITNESS FOR A PARTICULAR PURPOSE ARE
 * DISCLAIMED. IN NO EVENT SHALL THE COPYRIGHT HOLDER OR CONTRIBUTORS BE LIABLE
 * FOR ANY DIRECT, INDIRECT, INCIDENTAL, SPECIAL, EXEMPLARY, OR CONSEQUENTIAL
 * DAMAGES (INCLUDING, BUT NOT LIMITED TO, PROCUREMENT OF SUBSTITUTE GOODS OR
 * SERVICES; LOSS OF USE, DATA, OR PROFITS; OR BUSINESS INTERRUPTION) HOWEVER
 * CAUSED AND ON ANY THEORY OF LIABILITY, WHETHER IN CONTRACT, STRICT LIABILITY,
 * OR TORT (INCLUDING NEGLIGENCE OR OTHERWISE) ARISING IN ANY WAY OUT OF THE USE
 * OF THIS SOFTWARE, EVEN IF ADVISED OF THE POSSIBILITY OF SUCH DAMAGE.
 */

#ifndef __MODEL_PARAMTERS_H__
#define __MODEL_PARAMTERS_H__

double model_0_weight[]       = {-0.4110013544559479, 0.4321620762348175, 0.46948981285095215,
                                 0.07727497816085815};
double model_1_weight[]       = {1.010745882987976, 1.0044375658035278};
double model_1_bias[]         = {-0.03729663044214249, -0.02120954357087612};
double model_1_running_mean[] = {0.36687085032463074, 37.16026306152344};
double model_1_running_var[]  = {342638.96875, 2683335.5};
double output_weight[]        = {
    -0.034273210912942886, -0.03562238812446594,   0.0023779855109751225,  -0.03877288103103638,
    0.012178100645542145,  0.046531084924936295,   0.016453346237540245,   0.012718947604298592,
    -0.061607725918293,    0.002857519779354334,   -0.021006649360060692,  0.03292247653007507,
    0.002425609389320016,  -0.0004915589233860373, -0.020737238228321075,  -0.032387375831604004,
    0.010263239033520222,  -0.0751800686120987,    -0.03573673963546753,   0.03891284763813019,
    -0.031376615166664124, 0.02088593691587448,    -0.03508538007736206,   0.026744939386844635,
    -0.014345177449285984, -0.023877251893281937,  -0.007011342328041792,  -0.003269619308412075,
    -0.047920677810907364, 0.041715558618307114,   0.051778946071863174,   -0.03914390131831169,
    -0.04860455170273781,  -0.02879519574344158,   -0.016345061361789703,  0.021434154361486435,
    -0.03955103084445,     0.04288787767291069,    0.01858471892774105,    0.04449617862701416,
    0.04265282303094864,   -0.0682603120803833,    -0.0019209395395591855, 0.04981977492570877,
    0.028920404613018036,  -0.046233098953962326,  -0.05830612778663635,   -0.062267005443573,
    -0.025142056867480278, -0.022364962846040726,  0.03414830565452576,    -0.009448878467082977,
    0.01688951440155506,   -0.012250557541847229,  0.00814855471253395,    -0.024629751220345497,
    -0.014927135780453682, 0.03803665563464165,    -0.0017116544768214226, -0.03746674582362175,
    -0.025199707597494125, -0.006035202648490667,  0.033317938446998596,   -0.046517129987478256,
    -0.03475739806890488,  -0.07495944201946259,   -0.0023131652269512415, -0.02433891035616398,
    0.04573003947734833,   -0.021368667483329773,  0.01839689165353775,    -0.07502873241901398,
    0.042743176221847534,  -0.06207233667373657,   -0.032557517290115356,  0.04065661504864693,
    -0.0653582364320755,   0.04929034039378166,    -0.07545539736747742,   -0.06993386894464493,
    -0.01798177883028984,  0.00805465318262577,    -0.04189940169453621,   0.01617508940398693,
    0.04383285716176033,   -0.04415818676352501,   -0.023793669417500496,  -0.008296922780573368,
    0.028797224164009094,  -0.030663520097732544,  0.048581235110759735,   -0.07253973931074142,
    -0.019020479172468185, -0.054653722792863846,  0.05017095431685448,    -0.06450667232275009,
    -0.024669691920280457, 0.049143072217702866,   -0.02721630223095417,   0.037878237664699554,
    -0.03576028719544411,  0.05069943889975548,    0.04540269449353218,    0.018455496057868004,
    -0.06194759160280228,  0.042066194117069244,   -0.03176000714302063,   -0.0234664473682642,
    -0.0396805964410305,   -0.0685102641582489,    -0.06862454116344452,   0.0026658247224986553,
    0.004315504804253578,  -0.047797512263059616,  -0.06060321256518364,   -0.027174094691872597,
    0.023077813908457756,  -0.012209267355501652,  -0.006262186449021101,  0.031058600172400475,
    0.04110805690288544,   0.005073542706668377,   -0.006726900115609169,  0.00388478790409863,
    -0.06081613153219223,  0.03760666772723198,    0.038266293704509735,   -0.036959581077098846,
    -0.04985598847270012,  -0.058993786573410034,  0.0371108241379261,     -0.05030326172709465,
    -0.06652843952178955,  -0.028449855744838715,  -0.0638219490647316,    0.026420386508107185,
    0.007219096180051565,  -0.05692656710743904,   0.030025826767086983,   -0.0159318707883358,
    -0.03638050705194473,  -0.03859901800751686,   -0.0358089804649353,    0.015226687304675579,
    -0.055569276213645935, 0.024946603924036026,   -0.040020450949668884,  -0.008386868052184582,
    0.04849022626876831,   0.03193587064743042,    -0.047960974276065826,  0.03471560776233673,
    -0.04258463904261589,  -0.024038802832365036,  0.041165195405483246,   -0.06888792663812637,
    0.026832710951566696,  -0.011209238320589066,  0.0241452157497406,     -0.018015047535300255,
    -0.05453098192811012,  -0.01490830723196268,   -0.022708870470523834,  -0.006020480301231146,
    -0.03843764588236809,  0.026901954784989357,   -0.05529637262225151,   0.03170090168714523,
    0.02212565764784813,   -0.07724888622760773,   -0.0698770061135292,    -0.04871240630745888,
    0.0011712623527273536, 0.000566675968002528,   -0.05693935230374336,   0.011638665571808815,
    0.041807059198617935,  0.02013433538377285,    -0.043062031269073486,  0.007145904935896397,
    0.021204782649874687,  -0.07697483897209167,   0.037013549357652664,   -0.04131867364048958,
    0.011443668976426125,  0.025760043412446976,   0.01744968444108963,    -0.07388245314359665,
    -0.008955121971666813, 0.02313411235809326,    0.013131783343851566,   0.030013473704457283,
    0.010271125473082066,  -0.013653678819537163,  0.02930503711104393,    -0.04246069863438606,
    -0.009147128090262413, -0.004125112667679787,  -0.03828839585185051,   -0.03655943647027016,
    0.041110891848802567,  0.02230132184922695,    0.04553009197115898,    -0.04594584181904793,
    0.012480543926358223,  -0.027833662927150726,  0.026998216286301613,   -0.026901789009571075,
    0.019240299239754677,  -0.042355965822935104,  0.019823912531137466,   0.0014290774706751108,
    0.046853601932525635,  0.015470229089260101,   0.04849103093147278,    0.012446996755897999,
    0.046545159071683884,  -0.005838808137923479,  0.030032599344849586,   -0.03067704476416111,
    0.042538147419691086,  -0.0057545811869204044, -0.006111346185207367,  0.034058135002851486,
    0.03243662416934967,   -0.0755862295627594,    -0.0034861115273088217, 0.03400850668549538,
    -0.07498092204332352,  -0.0070329699665308,    -0.0788675919175148,    0.028676331043243408,
    0.01736295036971569,   0.006651741918176413,   -0.041012540459632874,  0.023105384781956673,
    -0.058328840881586075, -0.010084839537739754,  -0.009155294857919216,  -0.01393886562436819,
    0.06627850234508514,   0.0017354432493448257,  0.008787318132817745,   0.04494263231754303,
    0.05700841173529625,   0.010824496857821941,   0.04717525094747543,    -0.0447852797806263,
    -0.035200826823711395, -0.020619051530957222,  0.004900914616882801,   -0.040267035365104675,
    0.01376747339963913,   -0.013477572239935398,  0.021751372143626213,   0.04454837366938591,
    -0.04448353126645088,  -0.04482392594218254,   0.033683065325021744,   -0.04302453622221947,
    0.023563990369439125,  -0.015329011715948582,  0.06436263024806976,    -0.004942181520164013,
    0.020297933369874954,  0.06506706774234772,    0.023235132917761803,   0.056137096136808395,
    -0.0381765253841877,   0.01350250281393528,    0.008040813729166985,   0.00827696267515421,
    0.04596906155347824,   -0.050347667187452316,  0.05557060241699219,    0.039563219994306564,
    0.015788991004228592,  0.050786297768354416,   0.028219275176525116,   0.05058922618627548,
    0.0072230747900903225, 0.009494587779045105,   0.05012639984488487,    0.042140182107686996,
    0.021335212513804436,  -0.02353215590119362,   0.04245453700423241,    -0.043594591319561005,
    0.025443239137530327,  0.00957249291241169,    0.06152036786079407,    -0.029702337458729744,
    0.0692519098520279,    -0.025494884699583054,  -0.05208772048354149,   -0.02280518040060997,
    0.0340314656496048,    -0.022794052958488464,  0.013688831590116024,   -0.033019520342350006,
    0.0027435244992375374, 0.050376392900943756,   -0.035064633935689926,  -0.042150020599365234,
    0.05065038800239563,   -0.04334976151585579,   0.02975708246231079,    -0.019646795466542244,
    0.06206692382693291,   0.022970182821154594,   0.062412507832050323,   -0.012239519506692886,
    0.03503698110580444,   0.007065402343869209,   0.0067018261179327965,  7.277619442902505e-05,
    -0.039432428777217865, -0.013545717112720013,  0.04688723012804985,    -0.049286238849163055,
    0.07152485847473145,   0.03111880272626877,    0.018732355907559395,   0.03478175774216652,
    -0.01956305280327797,  -0.03805651515722275,   0.0648346096277237,     0.01964074932038784,
    -0.039507653564214706, 0.04901978000998497,    0.06212659925222397,    0.020021701231598854,
    0.004681119229644537,  0.03585746884346008,    0.046054642647504807,   -0.025376345962285995,
    -0.023525096476078033, -0.04377392306923866,   -0.019038992002606392,  -0.029604092240333557,
    0.0013138484209775925, 0.005321298260241747,   -0.03652573004364967,   -0.023716796189546585,
    0.03957916051149368,   0.043386269360780716,   0.005821462720632553,   -0.005940901581197977,
    -0.0411752425134182,   0.02496515028178692,    -0.028323808684945107,  -0.034233082085847855,
    0.02685156650841236,   0.05417792126536369,    -0.003463858738541603,  -0.033404842019081116,
    0.032849960029125214,  0.025770824402570724,   0.003447694703936577,   0.01857704296708107,
    -0.014316152781248093, -0.036963559687137604,  0.05014374107122421,    0.07710173726081848,
    0.02603865973651409,   -0.01978815346956253,   0.05729706957936287,    0.040542080998420715,
    -0.04427076503634453,  0.03185059875249863,    0.0420699380338192,     -0.014127964153885841,
    0.023397186771035194,  -0.04833861440420151,   0.008438835851848125,   0.013380298390984535,
    0.01676369458436966,   0.03820151090621948,    0.04085888713598251,    0.02310454286634922,
    -0.02552221342921257,  0.07624383270740509,    0.04963475838303566,    0.055462803691625595,
    0.06119031459093094,   -0.030964817851781845,  0.01585046574473381,    -0.04833740368485451,
    -0.04730837047100067,  -0.021049879491329193,  0.04116275534033775,    0.06334211677312851,
    0.078067846596241,     -0.037339337170124054,  -0.03933674097061157,   0.045071523636579514,
    -0.002065707929432392, -0.002806747565045953,  0.06871148198843002,    0.03132416680455208,
    0.04949898645281792,   0.029771247878670692,   -0.0073762135580182076, -0.012441801838576794,
    0.003202547086402774,  0.044607337564229965,   0.06435711681842804,    -0.037379976361989975,
    0.007270348723977804,  0.04864365607500076,    0.04260334372520447,    0.010080222971737385,
    -0.04479966685175896,  -0.026303794234991074,  -0.01815580017864704,   0.011029714718461037,
    0.0627228394150734,    0.04696981608867645,    -0.04262204095721245,   0.05611824989318848,
    -0.03541462868452072,  -0.028099628165364265,  0.02408660389482975,    0.051133349537849426,
    -0.009448307566344738, -0.032925210893154144,  0.035341985523700714,   0.02601662464439869,
    0.001894759014248848,  0.011539732106029987,   0.04641875997185707,    -0.04667016118764877,
    0.06020895764231682,   -0.011465538293123245,  0.00742919510230422,    -0.04880339652299881,
    0.020199261605739594,  -0.007330405525863171,  0.055044688284397125,   -0.03897260129451752,
    -0.04054580628871918,  -0.033084187656641006,  0.058253150433301926,   0.02784738503396511,
    0.038810014724731445,  -0.04870809242129326,   0.0032042935490608215,  -0.016394782811403275,
    0.019853463396430016,  -0.001187254791148007,  -0.026246102526783943,  0.019571494311094284,
    -0.006609159056097269, 0.05329177901148796,    0.06275902688503265,    0.02938028983771801,
    0.045929331332445145,  0.060059770941734314,   -0.010153242386877537,  0.05140027403831482,
    0.0394897498190403,    -0.03227511793375015,   -0.01164571288973093,   0.0023288000375032425,
    -0.027238262817263603, 0.04094720259308815,    0.02686488628387451,    0.04309749975800514,
    0.009398171678185463,  0.029665034264326096,   0.03046344220638275,    -0.02347378246486187,
    -0.017339598387479782, -0.006043325178325176,  0.020301302894949913,   -0.006983851082623005,
    -0.000492327322717756, -0.020886868238449097,  0.005699229426681995,   -0.015321595594286919};
double output_bias[] = {0.02413875423371792, -0.06324564665555954};

#endif
